{
  "activationFunctionFactory": {
    "activationFunctionMap": {
      "TANH": {
        "type": "basicneuralnetwork.activationfunctions.TanhActivationFunction",
        "recognition_number/data": {}
      },
      "RELU": {
        "type": "basicneuralnetwork.activationfunctions.ReLuActivationFunction",
        "recognition_number/data": {}
      },
      "SIGMOID": {
        "type": "basicneuralnetwork.activationfunctions.SigmoidActivationFunction",
        "recognition_number/data": {}
      }
    }
  },
  "random": {
    "seed": 167687830619953,
    "nextNextGaussian": 0.0,
    "haveNextNextGaussian": false
  },
  "inputNodes": 8,
  "hiddenLayers": 2,
  "hiddenNodes": 32,
  "outputNodes": 1,
  "weights": [
    {
      "mat": {
        "type": "org.ejml.data.DMatrixRMaj",
        "recognition_number/data": {
          "data": [
            2.0817012314064773,
            0.9421924217896323,
            -0.01645921136215267,
            1.422294171868338,
            0.43560838313208783,
            -1.3578006616819698,
            1.9432470375766455,
            -1.5994759115595478,
            -0.04646255187072512,
            -1.7638791956830306,
            -1.9834694379819955,
            -0.04941322711278556,
            1.6907542144039582,
            2.109260883182373,
            0.27581599160310966,
            1.0632022776290586,
            -0.5742132439550564,
            0.12494195676078995,
            1.5546625209640035,
            -0.3491849965167204,
            -0.5611242287975485,
            0.9221311847533138,
            -2.1667235335386708,
            -1.2248994157215272,
            -0.5450329456401484,
            -0.566919048304942,
            3.9653643631433413,
            -0.9148796803400621,
            -1.8193599890158165,
            -3.5916482215321137,
            1.0684368461085456,
            -1.9458029135555164,
            0.2502787749849216,
            -0.8850089207652942,
            2.0250239883587433,
            0.10056872905889391,
            1.468989680368416,
            -1.4061931894197257,
            -0.06122386958304646,
            -0.36544027040313665,
            0.0772385292202552,
            0.7223428633391915,
            -0.2332697792642967,
            -0.08272076686420515,
            -2.1301429063732384,
            -0.10732178373031234,
            1.305345526523387,
            1.0854891614842945,
            -1.5995191542069067,
            0.3750967737293582,
            -1.043110437284114,
            -0.4797743088830619,
            2.348270233349749,
            0.9832031845906031,
            -2.6322235770086864,
            1.019314394295102,
            1.2655102503492892,
            -3.6226210458253307,
            0.5194207910534382,
            -2.9489688106593124,
            5.0515020273046405,
            0.36402712816770894,
            -2.8763710513644174,
            -0.8151657910589045,
            -1.816886292469068,
            -1.4281929169581247,
            0.2819023803182511,
            -0.24532988081754115,
            -3.193650901963296,
            -2.7196656821602936,
            2.4993746993152643,
            0.6058487315664083,
            -0.8293971549170004,
            -0.6192916282002459,
            0.6973693322878043,
            3.809611505339374,
            -1.12489926403348,
            0.6383175270668109,
            -1.5758652781818134,
            0.6588657959162483,
            -2.103759124820656,
            1.4472578158656606,
            -0.44903024159783506,
            0.6757304759860336,
            1.542064543264964,
            -1.424364410782644,
            2.463810906379325,
            2.652416691416996,
            1.0132433871501143,
            0.9036188440197862,
            -0.23880045370706282,
            0.5956209474761053,
            -0.7963351849411747,
            0.4987545384726503,
            0.16081739279254692,
            2.56314846424982,
            2.7087971147756,
            0.34046582739040065,
            -1.955739482490021,
            0.4481038999609306,
            -0.5492548710141694,
            -0.08480022533452858,
            -0.36063893462029817,
            0.11461487039854151,
            0.9128339402364063,
            -0.5561204445823485,
            -1.322318127376314,
            0.5155125932739122,
            0.5969152308203843,
            0.7242714221574931,
            -1.3653627000153807,
            2.4601491231963455,
            -1.2810441157061883,
            -2.4918263338273037,
            0.5577893143096435,
            0.2756104629802917,
            1.330972160307641,
            -1.027898858072884,
            -1.3453206112515042,
            -1.528155763775537,
            -0.28388058935036603,
            -0.10991559463677647,
            -0.19164484419492794,
            0.0010197513072833786,
            -2.4608526248844105,
            0.6077825272182478,
            -0.021945998906955422,
            0.7326878154367523,
            -0.2739570740848512,
            -1.859415796080009,
            -1.8848079540908202,
            1.040191686607854,
            0.11050694601570532,
            1.8794538624396817,
            0.9154620922544059,
            -1.6347092523005067,
            0.5997844046327674,
            0.4955473659715991,
            -2.025734483193503,
            2.231807200041947,
            0.7120084992034479,
            -1.9239939646994375,
            0.5509881193622428,
            -1.5928153582699305,
            0.7177811330272952,
            1.5766169900937381,
            -2.2192858282063614,
            -0.23335776486455523,
            -0.6420192246408973,
            0.7792131629954029,
            -0.9172540079382159,
            1.994583744055158,
            0.10114274708037235,
            -0.5463091178247179,
            -1.1808835948034087,
            0.8720974978475164,
            -1.2274693052263002,
            0.3768363431860441,
            0.9500534231639783,
            -0.0635262475274741,
            -0.2531867271642469,
            1.06627716605826,
            0.7509185325065816,
            1.9080002664150073,
            -0.25207473868943486,
            -2.2967822921003616,
            -0.5517885713595961,
            1.0841350096147526,
            1.4468071773279125,
            3.6334567069476726,
            -2.0302048046292804,
            -3.544863595087048,
            0.4999666559036105,
            0.24560583379084233,
            0.2650009102431421,
            1.191162957790272,
            -1.0132055453043765,
            -1.9716842346745689,
            1.4690934573398542,
            0.4469723492902674,
            -0.7871777944484358,
            -0.8895643997314291,
            -0.36169156903794086,
            0.7281055146154672,
            1.082592595900485,
            2.1987668309366977,
            0.08744671847044466,
            0.7468851263566104,
            -1.491216418776998,
            2.5345012388517576,
            -0.4224558263691035,
            -1.2836101510051066,
            -0.4816259872379621,
            0.42135109506820156,
            0.9340225902988462,
            0.9546612924140967,
            -2.890465940304185,
            0.07891124776479426,
            -0.5101707775218044,
            -2.9289917921573556,
            0.22175311928751662,
            0.84819285381331,
            -1.1221691885490277,
            1.6287854406796307,
            0.0776980581255993,
            0.35272323622503254,
            0.7206258601013698,
            2.2060280386445577,
            0.6764422609304528,
            0.6008275845483199,
            -0.2648294201748599,
            -2.0216445936061613,
            0.41813029657539086,
            -0.7101694164985518,
            1.3533739070147182,
            0.8096432360167793,
            1.1794953418660925,
            -0.41325543153770405,
            -0.22548621229682825,
            0.4469649376135141,
            -2.8541736642438007,
            -2.6947052027415253,
            0.1487080874375562,
            0.13594298960647683,
            2.291451512539928,
            -0.8581030807892764,
            2.6135610825366786,
            -0.6806328883023677,
            -0.46890842743506767,
            0.44623756989892793,
            -1.0574289107976895,
            2.2025406910401375,
            -0.299914375871498,
            -2.0753923595069974,
            -0.7573757933372275,
            1.348263280717156,
            1.8861052559677929,
            0.9126525958525895,
            2.047728380738302,
            3.0540892515599904,
            -1.1864473958995667,
            -0.9511253586271149,
            0.7980778389782199,
            -0.3882276921857267,
            1.1110572733854873,
            0.25697118364359,
            1.6169932610136966,
            -1.1497686715556685,
            -0.21864152779944723,
            -1.5665235749337103,
            -0.9275748459865502,
            -1.4890226501898483,
            -2.778739174114848,
            0.3143220617411851,
            -0.307638276772625,
            1.6493925847006365
          ],
          "numRows": 32,
          "numCols": 8
        }
      },
      "ops": {
        "type": "org.ejml.simple.ops.SimpleOperations_DDRM",
        "recognition_number/data": {}
      }
    },
    {
      "mat": {
        "type": "org.ejml.data.DMatrixRMaj",
        "recognition_number/data": {
          "data": [
            0.33123000883993997,
            -2.3774128582392215,
            0.3416992380981577,
            0.2731666142979865,
            0.4715445579473748,
            -1.7047215969206544,
            0.1517314061140269,
            0.2708350727461649,
            -1.7126121829189969,
            1.4364336498919457,
            -1.317860346023549,
            -2.5811264085224197,
            -0.5330313335371061,
            0.9254058269313572,
            0.7068261444498225,
            -2.414653771683798,
            0.29607978859041817,
            0.09712227672075191,
            2.296809243548373,
            0.41193102415184935,
            0.5233184308519739,
            0.8223387580912864,
            -1.9496284885906199,
            -0.43508620516380797,
            -0.44114779794106906,
            -2.2590647415392513,
            -1.4367660421449138,
            -1.2471237360013334,
            -0.08089806682722112,
            2.8635490206716443,
            -0.5850107186113721,
            0.7083155884732385,
            -0.8787755105581002,
            -3.65001238070224,
            -0.11617656439704371,
            1.483926396056888,
            1.13896051739328,
            -0.21213607584757577,
            1.0752180342184774,
            1.9819606219826058,
            0.8252613348511633,
            -0.5856605620036415,
            2.935628422469862,
            -3.5188196103761666,
            -0.5313868928031485,
            -2.3733597482714535,
            1.7129637958409658,
            -0.4623033361312139,
            -0.3197450118896258,
            -1.9176375801840564,
            -0.18752569292659277,
            -1.5093680774220208,
            0.8648062274638182,
            1.2213316423341172,
            2.274021094840551,
            -1.0756162864152354,
            0.013358188520091463,
            0.25423790510710753,
            1.2210818177513962,
            0.25523228278674914,
            -1.41773292775726,
            2.64832417865492,
            -0.982925230753029,
            0.3964171694445769,
            0.4575368515755237,
            2.6300120727987433,
            -2.0385382392278935,
            1.8088497600867464,
            -0.8967965630759974,
            -0.6776313769448518,
            1.5692119871689703,
            1.2686654616703392,
            0.9322089513904036,
            0.032132127480974215,
            -0.5438046014860942,
            -0.6133329796359589,
            3.2736587160136694,
            1.6344262401706624,
            -1.2460637227276208,
            1.4596072717559776,
            -0.5244639164032621,
            1.25778242439524,
            2.811141770465185,
            0.9322152410228713,
            0.7899311955515808,
            -2.4744579729464893,
            1.1331557117050897,
            0.10379514584326804,
            -0.08170583744005366,
            -0.5341154229328807,
            -2.067915420311669,
            0.8813177036894699,
            1.8571094235408556,
            1.7093201633975181,
            -1.9960397649870871,
            1.12742840520921,
            -0.4275044943785441,
            -1.6747471868296102,
            0.34421162961222346,
            -0.5883032242777773,
            -0.5695967778653155,
            -1.6985864286012025,
            -1.8579380689233405,
            1.4703056288068412,
            0.2771249956235857,
            -2.71773738299098,
            2.11772829944414,
            -2.078683482402548,
            -0.5436601075935104,
            0.05199987926255012,
            0.24975400034144385,
            1.8043032183396954,
            0.13766841815180353,
            0.6646023754213362,
            0.4913435573773924,
            -0.6402688440813719,
            1.557381853126786,
            -0.22116408984061697,
            -0.02437269952644447,
            0.2952147766663432,
            -1.0868840988677908,
            -3.1413332650016055,
            -0.3338183886917803,
            -0.9609192959006696,
            -1.710989976741818,
            -2.220734669978507,
            -2.071126351124674,
            -0.5110911009033126,
            0.3283266955834197,
            0.9826345002581773,
            2.592512624012251,
            -0.010944055916651096,
            0.5514203089048291,
            1.5273909269978985,
            0.6637771628221117,
            -1.9238041670628632,
            -1.9317783660792374,
            3.5624460370133613,
            0.9450212232831056,
            2.137665592707708,
            0.33832293820459247,
            -0.08171494339010804,
            -0.2814722834445098,
            0.9609304754162351,
            0.20699887420479374,
            0.28959859845508784,
            -4.219878754020472,
            -0.3987212236918591,
            2.3089709204804043,
            1.305780058391933,
            -2.3366824510605797,
            -1.335979753703293,
            -0.6954950608072776,
            -0.19713709542575325,
            1.2057955145551664,
            0.1301656750318035,
            -0.5921237067695844,
            1.3379149447549674,
            -2.885368917368764,
            -0.13338559569376165,
            -1.3572094948037396,
            0.525135258283193,
            1.0803953893909464,
            -0.33420981741031786,
            -1.6965046880471868,
            -0.47289380085048627,
            1.2151388177116191,
            0.6095078177908699,
            -0.15914046440628143,
            0.3794257345084608,
            -0.4674050635685084,
            -0.055693899399400226,
            -0.019791616005348418,
            3.2017373368137623,
            -2.631300566389253,
            0.3881079145002661,
            1.8844321992511295,
            -3.27291668518014,
            -1.570813074890763,
            -1.5464789152996103,
            0.2509841260334338,
            -0.6574862546093566,
            -1.2516445638782332,
            0.0645981696086031,
            0.1692493779075952,
            -0.24605067993288698,
            0.6481802824566317,
            0.036609053774494416,
            0.37342547297040035,
            -1.2993331401838586,
            0.9173850043869358,
            -0.093787692446963,
            -0.15482498766058223,
            1.0922666522237339,
            0.7410703917341761,
            -0.3047561695364653,
            0.9546814739636973,
            -1.3272157231057358,
            -1.2383081920110866,
            -0.9387728613237303,
            0.258726185118777,
            -0.16380516023686187,
            0.5600714720431407,
            -0.1881469724672104,
            0.5836203504122975,
            -1.199428759508701,
            -1.4853160508014276,
            -0.45227052500124965,
            0.6107555728304574,
            1.9080072442915275,
            1.656298489277961,
            1.2619523851304522,
            0.752392159021793,
            0.744281088774149,
            -0.7565507181814752,
            1.3846827043857792,
            -0.6642534335363717,
            -0.10000583383823611,
            0.21217953088123698,
            -0.4489348024186568,
            1.263760709545953,
            2.074279072538135,
            3.297786500492398,
            -0.5145020565075938,
            -0.44766604813224253,
            -0.36370016611214084,
            -0.6042714278607011,
            -1.9626805704688859,
            -1.299457329142934,
            -1.074402237104949,
            -0.022907107920811853,
            3.1670823161952497,
            0.1891775015877449,
            -0.321519419311336,
            -1.262805506357669,
            -1.4604414785853606,
            0.7355549321899286,
            -0.2968885037157949,
            -1.4715540716022473,
            -1.8847362053845091,
            -0.05933550603979884,
            -2.245622614985674,
            2.877038317957384,
            0.8780724795617462,
            1.7848418366747898,
            -0.6945164078813236,
            0.7555487445861586,
            1.3988799287602935,
            1.8890916112094622,
            -3.426502715455756,
            -0.6587792252727716,
            -1.6484906101840004,
            1.6786119455945825,
            1.6737540755571043,
            -1.138845537535075,
            -0.10975124245504381,
            0.0012407059375991458,
            3.058752499707981,
            -0.5834271210856865,
            0.5546178008620892,
            -1.0029327177964777,
            0.8716669264069957,
            0.6098582386715042,
            0.6444984973907801,
            -0.4791766515661622,
            -4.472176614238919,
            -3.7749541477975863,
            -1.5774073344922046,
            0.6470735862249222,
            -1.6294264222138501,
            -1.841401536564858,
            0.5562093414541698,
            0.03706164863493333,
            -0.21787563948737843,
            0.5443724075199095,
            -2.4085104819910663,
            1.7236976198137555,
            2.554814795030407,
            0.14568297728502017,
            0.3839153537591489,
            1.211736548916426,
            0.02978479308448323,
            -3.1014168020314954,
            2.693699346511005,
            0.9653554709542999,
            -1.3904248641238985,
            -3.2994421558119376,
            -1.3382867953293882,
            -1.1115013976702361,
            1.7351805330167636,
            1.691021462634143,
            0.36836004939241546,
            0.4872039592240934,
            -0.8930518941666489,
            -1.1422371353229512,
            -0.11032527879323009,
            0.0631643662713477,
            -1.3721140981606554,
            -0.45665970685673274,
            1.7550846005341025,
            0.3265979093724544,
            0.3253516052619188,
            -0.4079890207122979,
            -1.179253368766644,
            -0.9332480124732874,
            -0.663948157805026,
            -0.7672664388381494,
            -1.645957257019504,
            0.9363050614152637,
            1.393125316286464,
            -2.433633476251966,
            2.4006293500609743,
            0.9004386479606704,
            -0.8595892838540841,
            -0.6939001197413215,
            -1.893700600229745,
            0.7489603479540418,
            -0.8958417550543989,
            -2.169621526867299,
            4.162132101153808,
            -0.20605457766022145,
            0.22421819278718325,
            0.563699510818374,
            -0.9599446052005227,
            1.145353032850332,
            0.2645171383429947,
            0.22898990417764786,
            1.2490914221071203,
            2.0086306172779596,
            0.5269852768339148,
            0.6999668814102366,
            -0.9622023982428773,
            -2.0812757202672643,
            -0.1005388041024663,
            0.5223735657361837,
            0.819870822528095,
            0.8974124533770295,
            -0.8866170773006966,
            1.53429325656906,
            0.28536562853742437,
            1.314457253255746,
            -2.1233631973753715,
            -0.6405027319599697,
            0.342066761880966,
            2.3051054571193013,
            0.42204612876417724,
            0.7512345768363015,
            2.883352166980921,
            -2.0907222567893653,
            -1.471585931682635,
            -1.1816271915809826,
            -2.645039774352945,
            -0.7305760596060418,
            1.2077914981310136,
            -2.123120078505484,
            -1.0196874844350836,
            1.0146459617370622,
            -0.4801893506887627,
            3.2257077483768617,
            -0.2113150432052759,
            1.855014215830793,
            -0.6949905894743933,
            -1.611794012427097,
            0.27410043049713295,
            -0.5927364804737913,
            0.293029310227321,
            -3.409022805697844,
            -1.3397037337254745,
            -0.8689742429181179,
            1.010777373200884,
            -1.9808761394677479,
            0.03249644979262328,
            -0.670685697990651,
            1.6219703412847524,
            -1.713018663776165,
            -0.8735573124715843,
            -0.925933537349974,
            -0.4714088804729656,
            -0.46830861059531914,
            2.9783716372705396,
            0.6534611031547799,
            -1.2842532746243918,
            0.2884596179542596,
            -1.5643511595673352,
            -0.7306882822666143,
            -0.7543039080444198,
            1.5263002198005857,
            -2.240575072269994,
            0.03553089091644218,
            -0.6745343956989281,
            0.9630802530281362,
            0.7907797139334123,
            -0.8662497135433822,
            -0.22724650671402832,
            -0.4376185328947383,
            -0.7753163283643576,
            0.20930082373890413,
            -0.14816916495581606,
            -1.385057975456316,
            0.7988675573383947,
            0.11532260638815317,
            -0.43734987052507257,
            -0.1615640260570146,
            1.357928849463101,
            1.6117561411335066,
            -0.1519691371035663,
            -2.975749468053014,
            1.166832944305569,
            1.0457584587372923,
            -3.411751215025787,
            -0.7705725872737,
            -1.2391663648297957,
            0.3419774577307122,
            0.8721410639099405,
            0.7102765634561864,
            0.5277902933062081,
            -0.6220532322098294,
            -2.169420102393895,
            1.316241465047626,
            1.1956737538442062,
            -1.4615892411538467,
            0.24141412678658025,
            -0.7302133354004336,
            0.40529156085031104,
            -2.0553341215411045,
            -1.6694063921943356,
            0.5843360544522357,
            0.24592025093956485,
            -1.7058420122161548,
            -0.7963005886719747,
            -1.2719871701455912,
            0.5002803897324438,
            0.060287447632474955,
            -0.45729913447877046,
            1.9093491528321653,
            0.11237252810150244,
            -2.198367325174668,
            0.10061244326698038,
            1.7952374516850926,
            -2.2776034348053287,
            -2.0312069306254537,
            1.7080495263506852,
            0.5305708263086087,
            -0.6113404393239155,
            0.5323202967917551,
            2.0894850982317776,
            0.9994728733662436,
            1.1428908445055879,
            -1.448871123780314,
            -3.39249583142694,
            0.23791560690774877,
            0.42297465272539897,
            -0.9683275200703265,
            2.135418169893884,
            -0.8919406918361665,
            1.1292099478307986,
            -0.734347395851704,
            1.7540212925665646,
            -0.39173791606239455,
            -0.13040325835986044,
            -1.701204555581861,
            -0.49314418541603106,
            0.7577478809567578,
            -0.38018532371965136,
            0.06078583057808895,
            0.8100088949713261,
            2.1341751488765963,
            -0.4264255775984428,
            -1.9024657663771907,
            -2.5970071401992643,
            0.35143900462301003,
            -0.06145309637924595,
            0.08134966741132788,
            0.10136790713889528,
            0.37263152548807066,
            1.664648672648781,
            0.2137789313038826,
            -0.2688600369363412,
            0.14884313157065118,
            0.3590206311264723,
            -0.5977739484670859,
            1.3945020331369997,
            0.41791076619898304,
            1.6238232591518424,
            1.7625936815738552,
            -2.4356679305887683,
            0.8042051691607852,
            -2.493830265785619,
            0.8871452399598583,
            0.80594478749769,
            0.9914099800428561,
            -0.10263646470021492,
            -1.5596713269254212,
            -2.2324454203467816,
            0.6091959599098798,
            -0.23692283467401554,
            -0.6199749995312814,
            -1.5326992750887003,
            -0.906248761048061,
            2.748896499366828,
            0.27092189728336386,
            2.009445297684216,
            -2.8745000186754783,
            1.7240141177394857,
            -2.209617817095277,
            1.2029274440997009,
            2.687164497667094,
            1.0200520902543304,
            -0.1471608356899699,
            2.7148543803562077,
            0.16604434359535036,
            -1.917866813093574,
            -1.301428808280066,
            -0.5893260150565844,
            1.471203864188209,
            -2.9452144051206175,
            0.8787620110986953,
            2.5902367671368762,
            -2.568641601551084,
            1.214349616088956,
            1.4329001603889941,
            1.3148514199350152,
            1.5818905067214282,
            -2.476135492447569,
            -2.71171233000497,
            1.8623084679390345,
            0.5823270805937723,
            -1.9487170820782391,
            -0.39916984783029325,
            1.327429644243029,
            -1.8132734306572584,
            -1.49068392020712,
            0.984171403463553,
            1.8167749334388934,
            1.0627947007963117,
            -0.002307251038175029,
            -0.3473201974337387,
            -0.7583827155512528,
            1.53050705892712,
            0.9755435263398599,
            -1.3973590606511712,
            -0.5036091597710635,
            1.2193165438014093,
            0.08983629040503666,
            -3.05971211625567,
            -2.664743184852349,
            -2.662789536494916,
            0.3451084063165893,
            -1.625268270986771,
            0.4959808071209004,
            2.891565618127633,
            0.5627426378657081,
            -1.5340496415744165,
            0.7011641890286539,
            -1.2173664053063546,
            1.708310372058871,
            -0.18126018918049314,
            1.1818453700188523,
            -1.7425332474413733,
            -0.3365930163231945,
            1.9864300448366472,
            -0.7009631611490887,
            2.402455476118528,
            -0.10333103621372884,
            2.8100582270561416,
            1.209861654289495,
            1.4033658056075777,
            1.9505759860702696,
            -1.0033089766277945,
            0.1366042697517491,
            -0.397556908448475,
            1.6397099218570912,
            0.17854173331690296,
            -0.6628749248578735,
            -3.2283039944756142,
            -0.8281965535241204,
            1.7815962855060912,
            -0.7292603937878726,
            -2.5371382784327277,
            0.5087296583243999,
            -3.24660774768032,
            -0.43813889746274826,
            -0.2713148190453177,
            -2.2148218434741125,
            -2.848865557267578,
            0.6934796126419109,
            -2.8131144352413893,
            -1.604374753752956,
            -2.2185056291391447,
            0.6584582139850625,
            -0.021060827830354345,
            -1.2407452406732304,
            5.344644403978277E-4,
            -0.0016572839240229786,
            -1.2655202321653483,
            -0.38850836159142843,
            2.6780858621361725,
            0.9318286380994523,
            0.4104035157896955,
            -2.6477421570799478,
            0.01983890924895043,
            0.26162007287302896,
            0.8213907659650552,
            2.074601286697262,
            1.7217380539928444,
            -1.6285493423092252,
            0.9712416136636974,
            0.5305778944226989,
            0.5667447607495469,
            0.08352387042455658,
            0.6079486564667365,
            -2.6530544109698457,
            2.7548008262321972,
            -2.1734682826783622,
            0.07295714983327906,
            2.632695775201685,
            -0.4234034001266802,
            1.2425324109395013,
            -0.3156530986708356,
            -1.9670844627698156,
            -1.5262170555847778,
            -0.950060722191646,
            0.07346622643843614,
            1.8506803409090895,
            -1.8413430973462974,
            -1.440206320444629,
            -1.2452428225209746,
            -2.0687196436614794,
            -0.8284164879145801,
            -0.4546430156201639,
            -0.6890523904900371,
            1.1609521084565375,
            -0.09495399582277023,
            1.8500310244164226,
            -1.439706430285,
            -2.552346986355114,
            0.8735328984339514,
            -1.2968186486756528,
            -0.10632374105110717,
            0.04299179108839238,
            -1.3576212553990488,
            0.14575515859188637,
            3.706589344815971,
            -1.0878919948731092,
            -0.8382840693984519,
            1.9332541937903591,
            -0.18034897601232475,
            1.1619213686158716,
            0.8744656444619396,
            1.188735272791135,
            -1.141863208959917,
            -0.2930458371548882,
            3.9757731448682643,
            -3.3030859694749086,
            -0.1919675458554503,
            2.9107041544331795,
            2.0971293183196247,
            -0.6676335791522805,
            0.7277896790886802,
            -1.8879073365200687,
            -0.6916431465456594,
            -1.2147888480340583,
            -3.731663704615861,
            -0.17490207852792464,
            -0.4510165347253762,
            -0.16454207127170734,
            0.6212196621888595,
            3.7789095943171636,
            -0.41647952796381077,
            0.030124346420157266,
            0.15911592158464177,
            1.868109069626236,
            0.06638938869378205,
            -0.1787362225673803,
            -1.590637122005717,
            1.1976499043580686,
            -1.4262532944176975,
            -1.7470091067234923,
            1.5781231023269573,
            3.3242381245743546,
            -1.9934626740773032,
            -1.4398688969541111,
            -0.8392996663299104,
            0.9892899262456544,
            1.9168046826582534,
            -1.8115453380877407,
            0.6741301017280762,
            0.20283938505322965,
            -0.14104001756838183,
            -2.0098743004606012,
            -0.2879353901363781,
            1.279798180663076,
            2.083194605812901,
            -1.6186714857037416,
            1.0189346101439614,
            -0.9447196107334456,
            0.7654051181745043,
            1.1201934013982144,
            1.8742198110030193,
            0.6055724765898298,
            0.6085476052458902,
            -2.2728583275832057,
            1.0127529147614316,
            -1.7084275914668205,
            -0.8200348051709807,
            1.382875923395401,
            0.44995911711361747,
            -0.9445078351803491,
            2.61042355628572,
            -0.8408531529552821,
            -2.5828647277832184,
            1.0312890140403077,
            1.5672611322160508,
            -0.9840940744868456,
            0.6916388694499113,
            -1.5398448366036133,
            0.039121092087753495,
            1.0964145229462252,
            1.8645914869188078,
            -0.26833437430279594,
            3.609362143026092,
            -0.16440039590498556,
            -2.15680530220125,
            -1.9283813524303692,
            2.0339980011156285,
            -1.260919024384898,
            2.89964498642275,
            -1.5157962166192243,
            -1.9753111520165558,
            -1.5240381525656725,
            -1.398455917982598,
            0.021009175582809625,
            -1.920056331435579,
            -0.9055887929862207,
            -0.41193872205237425,
            0.49371142234339377,
            -1.4808102548428481,
            1.655401801849575,
            -2.1452436446290335,
            -1.8030084494374954,
            -0.18397755369142776,
            -0.42295396447698086,
            3.3476816409350785,
            -0.3203624752554117,
            -0.7051611805613153,
            0.8651599246801481,
            -1.267620883315402,
            0.7248129799782678,
            -1.810084258421377,
            -0.4195943010289751,
            1.4420173361915087,
            1.6989656956421952,
            -0.5558102042253292,
            2.0302616940534755,
            1.3464857016666865,
            -1.442215848120312,
            -0.5704515104333243,
            -0.419608505366441,
            -0.3127847147972603,
            -0.9229840788075945,
            -1.7244149818795447,
            -0.4336481542828578,
            -1.110715706087987,
            0.2844304341323074,
            -2.3248423769877475,
            -1.9693876796573015,
            0.4914057194027813,
            0.6619126559907598,
            -1.1884537023574158,
            1.6203453123886593,
            0.5041954474680531,
            -1.4859898440939672,
            -1.0430882243912374,
            -0.8777819787589644,
            1.511410876070289,
            -1.5383655895643567,
            -1.647226548472873,
            -0.1067284240825227,
            -0.4787348332386194,
            -0.07319196367496522,
            2.6740140191941086,
            -0.07202555468096941,
            -2.341032095657983,
            0.8835700551589181,
            -1.3632327464399878,
            3.1154632804693723,
            -2.2640294044989115,
            -0.5904132947307332,
            -2.011005567230546,
            1.0925905016911468,
            -1.1419021156668083,
            -0.7262118797399013,
            -1.120805580245383,
            0.1749892711030571,
            -0.023122750303064432,
            2.5863009287702354,
            1.4633207913631514,
            -0.7729157328672726,
            0.16719871043021822,
            -2.572182893173488,
            0.8305501445290745,
            0.6831773963391945,
            -0.16614992269236356,
            -0.9361047052961797,
            2.6435024194852748,
            -1.401617329221209,
            0.5588248793063302,
            -1.0068916587981667,
            -1.7737169098888699,
            2.3049421137188384,
            -1.5762260774413515,
            -3.5408446524085098,
            -0.9100926226484376,
            1.1790633500290795,
            1.5505227876132057,
            0.7052235725436471,
            1.664817135147479,
            -1.6312615174376122,
            0.9614061832616057,
            -0.16784942888028165,
            1.6751488575256703,
            0.7486013696911207,
            -1.4668792876727288,
            -2.9222759827060436,
            -0.5078074596576962,
            1.3456100741467827,
            -1.1968433090498696,
            0.6598409000211763,
            -2.632540204809459,
            -2.030757293713242,
            -0.8391579483139961,
            -1.0786326233221946,
            -3.1752876228806133,
            -1.4268756691000857,
            -1.2974490979771427,
            0.9606471286076529,
            0.8089531354579681,
            -2.3637776062924005,
            0.8894675284808762,
            -0.8177402703584422,
            -2.8261928402630034,
            -1.4903799218280724,
            1.6266765513743318,
            -0.8203973513998515,
            -0.8440731518013944,
            -1.5591361761747695,
            1.037539542729141,
            1.6545722313898723,
            0.08311347988020712,
            0.9866563691776451,
            -1.0859710991518932,
            -0.19849885980956883,
            1.701821777881138,
            -1.4797605808640746,
            3.283932631214921,
            1.6959392869797358,
            -0.05130174823178618,
            -0.8919699308788624,
            -0.30389448150680587,
            0.7481043186482972,
            1.986346007900675,
            1.0225310371996938,
            2.0043314475338487,
            -2.38941317704498,
            -0.5091148746005838,
            -0.2509520212865964,
            1.520390713268581,
            -2.0864519005003075,
            1.1659041098803138,
            -1.5015142714247438,
            0.5143511231082964,
            2.7922922282949636,
            -0.38132030975309233,
            -0.8714056716515671,
            1.441747317015548,
            0.7267233633034724,
            -0.839425718527392,
            -1.722977562151339,
            1.8005587281327213,
            0.5430025739920762,
            -0.9664090202704487,
            0.7932627936350027,
            -1.934950496768383,
            0.8344674314765621,
            1.0966229142731339,
            -0.5377341386428038,
            -0.17437928601571157,
            0.5782033485711969,
            1.8099517958023652,
            -1.7538143472476941,
            1.81750507167336,
            2.567923206136835,
            -1.8399908414301012,
            -0.4475188419922307,
            0.8290342308208793,
            -0.39141908934896885,
            2.478931963981512,
            1.3691561718002085,
            -3.337808260746837,
            0.23631415454995064,
            0.29283595869947465,
            0.8793306785339967,
            -0.8032563259176506,
            -1.6876951630469685,
            -4.069904359187831,
            -2.1372961830813293,
            -0.20220402300467277,
            -1.6559317277449983,
            -1.7193221777197847,
            1.1441352745992919,
            -0.18382607309347004,
            0.8601746753452163,
            -0.6429037984058595,
            1.3612643934199495,
            -1.0381898530670486,
            0.47335363636466216,
            -1.0396946925105024,
            -0.3547266209926473,
            -0.6080693571253816,
            0.16877762081630554,
            3.1538879223673932,
            -0.5207732906253792,
            -1.447273222084943,
            -0.013542395471323479,
            -0.88531111792912,
            -0.5590642229889266,
            -1.664851276972843,
            0.5039335164085953,
            3.403472809881433,
            0.3732840687807343,
            1.4463154816453971,
            -1.2313353926084856,
            1.6665199984614865,
            -3.403228384185851,
            -1.4665016408606684,
            3.3998161904162307,
            0.6033432790103503,
            0.14389775447526967,
            -0.8910884633595704,
            0.9280968806671269,
            0.8288897722950445,
            -1.7025339825409227,
            0.39956301265976846,
            -1.7333084964077567,
            2.5494669576767475,
            -2.129591485175936,
            0.9936217538642473,
            2.5816567460531386,
            1.4583313825891042,
            1.3012643527484202,
            1.0881137010310302,
            -1.2645904267776347,
            0.07179291029703214,
            -1.993508124950426,
            -2.839206889016,
            -2.31212667777116,
            0.12280803756023162,
            -1.53961453565812,
            1.4974655117353861,
            0.8868960334015814,
            -1.9128001702952127,
            0.3888982700060387,
            0.8504530906171771,
            0.040830028341245966,
            1.7524665983931842,
            -3.6272202169162937,
            0.8167462395197618,
            0.5686679052069199,
            -5.844338128009959,
            -0.4365663589697618,
            -1.3263432404825104,
            -2.1272680099316172,
            -1.3372799343619066,
            -0.8920447470600577,
            1.5707089836589112,
            1.1630482772222241,
            0.6556165550742106,
            -2.158877512496405,
            0.44267555739803166,
            0.434987945680953,
            -0.473316195869028,
            0.1140225365818277,
            1.6917760442633947,
            2.2763723802744593,
            1.4028682322617152,
            0.68927351534455,
            -1.5770342812886007,
            -0.3245648790718246,
            0.27801671568378805,
            -2.890631921801822,
            1.378609647582348,
            1.4728616609626237,
            3.0748835506872947,
            0.9471871351393677,
            1.7636889235216042,
            0.517833633253922,
            -0.6087296858917656,
            3.4649326039027484,
            1.2840096967451076,
            1.6900159809736117,
            -2.491083035633561,
            -2.7474413425903035,
            2.1055441871910503,
            0.9606251928088869,
            0.2153693414239073,
            -0.42694555365860415,
            -0.31294236748483056,
            1.3160498816810504,
            -1.4798843672882418,
            1.273959978540852,
            0.6647563173659004,
            0.07240606895930857,
            0.2071817059835891,
            -0.02020556825926361,
            -0.9126374684210561,
            2.379832935169825,
            -2.4096477176101274,
            -1.4711952324178614,
            1.200268119093234,
            -2.00591562811915,
            0.9742952678364333,
            1.6320232488483577,
            -0.8292023325865354,
            0.8268736216967626
          ],
          "numRows": 32,
          "numCols": 32
        }
      },
      "ops": {
        "type": "org.ejml.simple.ops.SimpleOperations_DDRM",
        "recognition_number/data": {}
      }
    },
    {
      "mat": {
        "type": "org.ejml.data.DMatrixRMaj",
        "recognition_number/data": {
          "data": [
            -1.0969623593085553,
            2.067184292950757,
            1.352007230597643,
            0.00994881481952381,
            2.3256097381486387,
            -2.7103935698903934,
            -1.8821232607940468,
            -3.3823318484633775,
            1.0003799310650967,
            -1.0303295328739317,
            0.5689465319386485,
            0.26756408160809747,
            -1.7886777426920832,
            1.8185904693533415,
            0.7986516954967838,
            -0.10000707470215878,
            -1.6182345106355491,
            -0.9996212267738198,
            -0.4702853937488821,
            -1.8062659110313004,
            0.7858080670841534,
            -0.7154606003137843,
            -0.22578540768743066,
            0.4279792940047328,
            0.3675480098963892,
            0.3858123999436648,
            -1.6062343694049122,
            2.2234172203673195,
            -1.7617520187155848,
            -0.5372860581721666,
            -3.362489416262479,
            0.37879647142898965
          ],
          "numRows": 1,
          "numCols": 32
        }
      },
      "ops": {
        "type": "org.ejml.simple.ops.SimpleOperations_DDRM",
        "recognition_number/data": {}
      }
    }
  ],
  "biases": [
    {
      "mat": {
        "type": "org.ejml.data.DMatrixRMaj",
        "recognition_number/data": {
          "data": [
            1.838203922606281,
            -0.1260527184442372,
            -2.5242105773545878,
            -0.9618208157125272,
            2.212988329859855,
            -0.6930065898801234,
            2.225177858151778,
            -0.7922724131738842,
            0.5931916324426649,
            3.049429472955653,
            -1.1244850594854572,
            0.9224591730663424,
            -0.9791544926272324,
            2.631076200122174,
            0.08565879775944274,
            0.27362470647069725,
            0.03415799969335108,
            0.06331905642277946,
            -3.349417224684344,
            -1.8669832400841897,
            0.2695639375132004,
            -1.5439277656461394,
            -2.539694304622835,
            0.39690377873708704,
            1.0908100237406333,
            0.03497908697390406,
            -1.2816996420811493,
            0.014812593458302548,
            -0.8808171579694273,
            5.267340881969249,
            1.7265762049082822,
            0.6738839766872073
          ],
          "numRows": 32,
          "numCols": 1
        }
      },
      "ops": {
        "type": "org.ejml.simple.ops.SimpleOperations_DDRM",
        "recognition_number/data": {}
      }
    },
    {
      "mat": {
        "type": "org.ejml.data.DMatrixRMaj",
        "recognition_number/data": {
          "data": [
            1.3409054146317374,
            0.3467375325453905,
            1.196471739652959,
            -0.5941277499128876,
            0.9659084630115102,
            2.0379191850673735,
            -0.2546667305058878,
            2.011916880263558,
            -1.2280463877142542,
            1.2999109868821908,
            0.5202515090316717,
            0.5423633901772205,
            0.730599338964945,
            -2.403838186656793,
            2.0910439110215417,
            2.570268734196407,
            -4.1651098804363675,
            0.671035598538944,
            1.0143883745271622,
            -1.6992554559017445,
            -2.3135852690851886,
            -1.742094488315637,
            0.46115466727979837,
            4.28584053540549,
            1.2542197445727385,
            -2.3919452581379175,
            1.561555263470524,
            0.031176744825109515,
            0.9752542902777983,
            -0.13320501357518272,
            3.1727226562344315,
            -1.6258011542102606
          ],
          "numRows": 32,
          "numCols": 1
        }
      },
      "ops": {
        "type": "org.ejml.simple.ops.SimpleOperations_DDRM",
        "recognition_number/data": {}
      }
    },
    {
      "mat": {
        "type": "org.ejml.data.DMatrixRMaj",
        "recognition_number/data": {
          "data": [
            1.248127211849455
          ],
          "numRows": 1,
          "numCols": 1
        }
      },
      "ops": {
        "type": "org.ejml.simple.ops.SimpleOperations_DDRM",
        "recognition_number/data": {}
      }
    }
  ],
  "learningRate": 0.1,
  "activationFunctionKey": "SIGMOID"
}